1.695144999999999902e+00 -2.681439999999999824e+00 1.259554000000000062e+00 -1.236008999999999913e+00
2.316100000000000048e+00 -1.818600000000000771e-02 -2.933074999999999655e+00 4.794124999999999637e-01
5.788115000000000343e-01 5.518864999999999466e-01 -2.215199999999999669e-01 -5.139730000000000132e-01
1.737683000000000089e+00 -8.163985000000000269e-01 1.614935000000000009e+00 -2.624964999999999993e+00
-5.559950000000000170e-01 2.365639999999999965e+00 -1.272161000000000097e+00 -5.238479999999999803e-01
-5.131800000000003026e-02 8.249275000000000357e-01 8.092629999999999546e-01 -1.272974999999999968e+00
8.924870000000000303e-01 1.406504999999999894e+00 -9.994429999999999703e-01 -1.054245499999999947e+00
-2.433250000000000690e-02 2.306669999999999998e+00 -1.200425499999999923e+00 -6.398034999999999695e-01
-6.504064999999999985e-01 1.764436499999999963e+00 -8.628149999999999986e-01 -3.662934999999999941e-01
1.403403500000000026e+00 -1.409270000000000023e+00 -8.996739999999999737e-01 3.610904999999999809e-01
8.702165000000000594e-01 1.426997499999999919e+00 -1.140945000000000098e+00 -8.858914999999999429e-01
2.942749999999999533e-01 7.226360000000000561e-01 -4.704924999999999802e-01 -2.341995000000000049e-01
8.810930000000000151e-01 -2.837999999999996081e-02 -1.599273999999999862e+00 5.326045000000000362e-01
1.535635000000000083e+00 7.404450000000000198e-01 -3.309755000000000003e+00 3.667940000000000089e-01
1.634469999999999867e+00 -5.552500000000015756e-03 -3.820179999999999687e-01 -9.974160000000000803e-01
4.830560000000000409e-01 4.643125000000000169e-01 -2.331250000000000266e-01 -3.389450000000000518e-01
8.474464999999999915e-01 4.373605000000000409e+00 -3.372634999999999827e+00 -1.813397000000000148e+00
3.987300000000000288e-01 1.085679000000000061e+00 1.044790000000000163e-01 -1.043225499999999917e+00
8.035490000000000688e-01 -6.744075000000000486e-01 -3.191295000000000104e-01 -9.657949999999998481e-02
-7.771239999999999259e-01 3.869800000000000129e+00 -1.194319499999999978e+00 -9.923629999999999951e-01
-9.034149999999996350e-02 5.534440000000000470e-01 -6.400049999999999351e-01 4.923595000000000055e-01
7.869665000000000132e-01 4.904389999999999583e-01 2.889150000000001439e-02 -9.335104999999999098e-01
1.055285000000000029e+00 2.087584000000000106e+00 -1.438570499999999974e+00 -1.451059000000000099e+00
3.326679999999999637e-01 7.842659999999999076e-01 -2.616795000000000204e+00 1.727339999999999876e+00
4.621714999999999574e-01 7.162600000000002298e-02 8.390965000000000229e-01 -1.008185000000000109e+00
4.727525000000000199e-01 2.649884500000000198e+00 -1.628585000000000171e+00 -1.203105499999999939e+00
5.827854999999999563e-01 1.966665000000000108e+00 -1.079587000000000074e+00 -7.657304999999999806e-01
1.268180000000000418e-01 -1.516668999999999823e+00 1.243450000000000111e-01 7.896030000000000548e-01
2.991070000000000118e-01 2.222560000000000091e+00 -1.260024999999999951e+00 -8.594975000000000254e-01
7.847539999999999516e-01 -4.929749999999999965e-01 -7.651270000000000016e-01 7.583440000000000181e-01
2.252115000000000089e-01 -9.021624999999999783e-01 1.364810000000000079e+00 -7.793034999999999268e-01
1.116697500000000121e+00 1.405238500000000057e+00 -3.389920000000000710e-01 -1.898090000000000055e+00
-6.620599999999998708e-02 -5.808659999999999934e-01 1.006717000000000084e+00 -3.009284999999999877e-01
9.624565000000000481e-01 -5.014355000000000118e+00 2.195759999999999934e+00 -4.925924999999999887e-01
5.016499999999979309e-03 2.740889999999999826e+00 -1.331581499999999973e+00 -1.216855000000000020e+00
-1.616454999999999975e-01 3.925469999999999793e-01 -1.764550000000000063e+00 1.531610000000000138e+00
-3.803185000000000038e-01 -7.195705000000000018e-01 1.244472999999999940e+00 -4.811935000000000517e-01
1.648846499999999882e+00 3.059554999999999580e+00 -4.322289999999999743e+00 -1.589474999999999971e+00
-7.082239999999999647e-01 4.200175000000000436e-01 3.865439999999999432e-01 -1.829970000000000208e-01
-1.292921499999999835e+00 -3.001699999999999591e+00 2.955915000000000070e+00 2.779899999999999038e-02
1.651675000000000004e+00 3.978830000000000311e+00 -3.737274999999999903e+00 -2.141074999999999839e+00
-3.610729999999999773e-01 5.789550000000001639e-02 -9.417824999999999669e-01 9.672454999999999803e-01
-7.127299999999999747e-01 5.836049999999999294e-01 -8.116695000000000437e-01 9.482494999999999674e-01
-1.728109999999999924e-01 2.748429999999999929e+00 -5.904555000000000220e-01 -1.416619999999999990e+00
-7.720164999999999944e-01 6.381639999999999535e-01 -5.621620000000000505e-01 5.322789999999999466e-01
9.022490000000000787e-01 -7.884474999999999678e-01 1.145794500000000049e+00 -1.271040000000000170e+00
4.919225000000000403e-01 6.541125000000000966e-01 -8.433035000000000947e-01 3.218860000000000054e-01
3.994480000000000253e-01 2.076410000000000089e+00 -2.766610000000000014e+00 4.598275000000000001e-01
-4.166239999999999943e-01 6.797499999999956355e-03 2.896289999999999698e-01 -4.005235000000000323e-01
5.287604999999999666e-01 2.047309999999999963e+00 -1.367893999999999943e+00 -9.458535000000000137e-01
-1.091700000000001003e-02 1.080244999999999678e-01 9.854449999999997933e-02 -4.156070000000000042e-01
-9.644300000000000095e-02 -1.498900499999999969e+00 1.413294999999999968e+00 -2.424439999999999928e-01
1.294850000000000056e+00 1.610520000000000174e+00 -1.931664999999999965e+00 -1.211686000000000041e+00
1.285474999999999923e+00 1.815054999999999863e-01 -3.293714999999999726e+00 1.259496500000000019e+00
-6.870840000000000281e-01 7.445000000000034923e-03 3.997599999999995601e-02 3.274179999999999868e-01
-6.855009999999999160e-01 2.397060999999999886e+00 -1.983639999999999848e+00 4.349665000000000337e-01
1.106198999999999932e+00 1.326905000000000001e+00 -3.402719999999999967e+00 8.509234999999999438e-01
1.042975999999999903e+00 -1.665215000000000167e-01 -1.156205000000000704e-01 -6.865985000000000005e-01
-3.351334999999999731e-01 4.151044999999999874e+00 -4.237140000000000128e+00 -3.374979999999999647e-01
5.201455000000000384e-01 8.265970000000000262e-01 -6.453134999999999843e-01 -4.194160000000000110e-01
